<?xml version="1.0"?>
<opencv_storage>
<stage6>
  <maxWeakCount>14</maxWeakCount>
  <stageThreshold>-8.2483357191085815e-01</stageThreshold>
  <weakClassifiers>
    <_>
      <internalNodes>
        0 -1 105243 -209989438 -257838880 3338355 -974667615 -1071599438
        -114073358 3402111 1943511291</internalNodes>
      <leafValues>
        -1.4036266505718231e-01 6.2916547060012817e-01</leafValues></_>
    <_>
      <internalNodes>
        0 -1 133843 -84230004 -98907964 -387281005 294505951 -937762292
        1662668069 -511640101 -79695273</internalNodes>
      <leafValues>
        -3.8211941719055176e-01 3.9296305179595947e-01</leafValues></_>
    <_>
      <internalNodes>
        0 -1 68088 -13140205 326508571 2103018271 2143376143 1504568255
        990904839 417379479 322149274</internalNodes>
      <leafValues>
        -4.3500435352325439e-01 3.4511435031890869e-01</leafValues></_>
    <_>
      <internalNodes>
        0 -1 114024 -605033874 -754146808 402294003 92332047 -2117631321
        33554572 333364639 -3147825</internalNodes>
      <leafValues>
        -3.6631277203559875e-01 3.8239160180091858e-01</leafValues></_>
    <_>
      <internalNodes>
        0 -1 113982 -639642630 -1811836064 -1550838536 336630997
        1208607994 -635484141 155195595 -1147590231</internalNodes>
      <leafValues>
        -4.2174893617630005e-01 3.3722323179244995e-01</leafValues></_>
    <_>
      <internalNodes>
        0 -1 73121 -1606421845 -449860413 871061015 -705167913 658870707
        -942684338 369825112 -1916011681</internalNodes>
      <leafValues>
        -3.4506273269653320e-01 4.0851351618766785e-01</leafValues></_>
    <_>
      <internalNodes>
        0 -1 124180 -66436988 -121569214 269486169 1359954265 -905803638
        -268369912 -2147431751 186286387</internalNodes>
      <leafValues>
        -4.5482376217842102e-01 3.0874392390251160e-01</leafValues></_>
    <_>
      <internalNodes>
        0 -1 44924 -673187068 -103689984 1468326488 1306559696
        1620036488 -720076654 1145046158 430145674</internalNodes>
      <leafValues>
        -5.0152075290679932e-01 2.8102725744247437e-01</leafValues></_>
    <_>
      <internalNodes>
        0 -1 93201 -2108510 2034087109 1372213573 -746470869 -1836338774
        1456799912 1347437661 -1340869</internalNodes>
      <leafValues>
        -3.7709593772888184e-01 4.0453356504440308e-01</leafValues></_>
    <_>
      <internalNodes>
        0 -1 114094 -222058742 -749657470 -1845374464 1309401242
        -2091413078 1124270722 303157775 1272914511</internalNodes>
      <leafValues>
        -4.5668622851371765e-01 3.2798624038696289e-01</leafValues></_>
    <_>
      <internalNodes>
        0 -1 131055 -107289972 1769096398 1351106823 327172381
        -667124190 463315972 -117379558 -182423475</internalNodes>
      <leafValues>
        -4.6622839570045471e-01 3.2339689135551453e-01</leafValues></_>
    <_>
      <internalNodes>
        0 -1 67978 -1966542189 -947875199 625066451 -585567999
        -1859403634 1795926340 1914655747 -1385229987</internalNodes>
      <leafValues>
        -3.6269286274909973e-01 4.1443741321563721e-01</leafValues></_>
    <_>
      <internalNodes>
        0 -1 121369 -714159970 -765869777 -1028241206 319593098
        2020985766 400064641 1433921519 -136332641</internalNodes>
      <leafValues>
        -3.7452033162117004e-01 3.9897122979164124e-01</leafValues></_>
    <_>
      <internalNodes>
        0 -1 155628 -11374379 -673045840 1525611761 1501773785
        -1419599286 -1744110040 -1172468997 521882699</internalNodes>
      <leafValues>
        -3.3363956212997437e-01 4.6869608759880066e-01</leafValues></_></weakClassifiers></stage6>
</opencv_storage>
