<?xml version="1.0"?>
<opencv_storage>
<stage13>
  <maxWeakCount>19</maxWeakCount>
  <stageThreshold>-8.0027949810028076e-01</stageThreshold>
  <weakClassifiers>
    <_>
      <internalNodes>
        0 -1 128022 -361043378 -76401602 -1334773122 285233353
        2121518201 1817630171 1514269930 -1677088546</internalNodes>
      <leafValues>
        -5.7851240038871765e-02 5.8737319707870483e-01</leafValues></_>
    <_>
      <internalNodes>
        0 -1 83844 -592723584 -271602912 386097188 -201469952 271509796
        1099645056 2014630365 -974141989</internalNodes>
      <leafValues>
        -3.7928831577301025e-01 3.1214338541030884e-01</leafValues></_>
    <_>
      <internalNodes>
        0 -1 119614 -245841081 -179647573 -369172625 -1026961423
        -1341258737 -1218609938 -502299409 -924953841</internalNodes>
      <leafValues>
        -3.1289121508598328e-01 3.4541189670562744e-01</leafValues></_>
    <_>
      <internalNodes>
        0 -1 106233 -847992016 -121725132 134198549 -684025335 621015979
        -1766484515 51484159 -669017857</internalNodes>
      <leafValues>
        -2.7600994706153870e-01 3.7193772196769714e-01</leafValues></_>
    <_>
      <internalNodes>
        0 -1 105558 1452986800 -471480300 4523797 -888150703 1380361874
        -1601863677 175190099 -337119441</internalNodes>
      <leafValues>
        -3.6470314860343933e-01 2.8886157274246216e-01</leafValues></_>
    <_>
      <internalNodes>
        0 -1 78978 1270908898 1260605582 -116589139 421635496 1579053984
        1903640583 219900382 488094362</internalNodes>
      <leafValues>
        -4.6604391932487488e-01 2.5452700257301331e-01</leafValues></_>
    <_>
      <internalNodes>
        0 -1 114169 -370295198 -33488850 192938204 18875062 1928139152
        906305949 1208156346 1601174047</internalNodes>
      <leafValues>
        -3.6843204498291016e-01 3.1311762332916260e-01</leafValues></_>
    <_>
      <internalNodes>
        0 -1 105123 1262211295 -661261078 660858239 1428293079 426506970
        1780102390 334699289 -1425972191</internalNodes>
      <leafValues>
        -2.9454028606414795e-01 3.9089277386665344e-01</leafValues></_>
    <_>
      <internalNodes>
        0 -1 120074 321912851 1606760753 293650805 1130377563 18926297
        -54325016 370782605 472521080</internalNodes>
      <leafValues>
        -3.9814519882202148e-01 2.9658436775207520e-01</leafValues></_>
    <_>
      <internalNodes>
        0 -1 133787 -1050158595 819087805 191187695 109043549 925710344
        2134343196 1602148281 -178728131</internalNodes>
      <leafValues>
        -3.0692240595817566e-01 3.7940949201583862e-01</leafValues></_>
    <_>
      <internalNodes>
        0 -1 152983 -922075127 1472419621 1919203518 263184428
        1291458836 -10518885 -869007360 -10270937</internalNodes>
      <leafValues>
        -3.2882672548294067e-01 3.5836508870124817e-01</leafValues></_>
    <_>
      <internalNodes>
        0 -1 29743 88263674 -280819509 -666652627 -43167483 35562128
        1575227974 397856786 -834869102</internalNodes>
      <leafValues>
        -4.1765424609184265e-01 2.7364969253540039e-01</leafValues></_>
    <_>
      <internalNodes>
        0 -1 12414 203782286 -36451673 -1360694766 859369877 779003628
        -1356688344 74597560 -94547454</internalNodes>
      <leafValues>
        -3.1294441223144531e-01 3.8162791728973389e-01</leafValues></_>
    <_>
      <internalNodes>
        0 -1 117605 -898456043 -1843887940 -1584082677 88406301 54689928
        275059929 1870385550 1392577058</internalNodes>
      <leafValues>
        -4.8101112246513367e-01 2.5108718872070312e-01</leafValues></_>
    <_>
      <internalNodes>
        0 -1 124519 -84726232 1614905346 -1068445412 1359022280
        1082614538 1125979273 294396033 1560799471</internalNodes>
      <leafValues>
        -4.5385959744453430e-01 2.6387482881546021e-01</leafValues></_>
    <_>
      <internalNodes>
        0 -1 117836 -805060062 -1874786047 1074835655 1116045457
        -1879015295 -2141994968 -1509834312 -887551685</internalNodes>
      <leafValues>
        -3.1163126230239868e-01 3.9273235201835632e-01</leafValues></_>
    <_>
      <internalNodes>
        0 -1 106303 1795144689 1882847641 -1552441160 -1088946008
        1357589753 -2146541594 -2127605633 -1681159023</internalNodes>
      <leafValues>
        -2.6796942949295044e-01 4.5167702436447144e-01</leafValues></_>
    <_>
      <internalNodes>
        0 -1 96740 -1422396673 2145868394 -1599953959 668140743
        1874192555 -1947517203 1712705535 -1882764923</internalNodes>
      <leafValues>
        -2.5128611922264099e-01 4.9852204322814941e-01</leafValues></_>
    <_>
      <internalNodes>
        0 -1 137231 -1343361059 1578588253 -362259657 1358963314
        1048153098 1582402864 145401082 -1415865810</internalNodes>
      <leafValues>
        -2.6836752891540527e-01 4.5011880993843079e-01</leafValues></_></weakClassifiers></stage13>
</opencv_storage>
