<?xml version="1.0"?>
<opencv_storage>
<stage23>
  <maxWeakCount>22</maxWeakCount>
  <stageThreshold>-1.1068302392959595e+00</stageThreshold>
  <weakClassifiers>
    <_>
      <internalNodes>
        0 -1 113300 -1018041629 1348610294 1366678525 606250742 7466503
        710927557 -1068108332 5432953</internalNodes>
      <leafValues>
        -9.5406360924243927e-02 5.4498445987701416e-01</leafValues></_>
    <_>
      <internalNodes>
        0 -1 133752 -587571974 -239319847 2087907323 1975083007
        518651594 1062723547 -892928305 -113516869</internalNodes>
      <leafValues>
        -1.9678808748722076e-01 4.2706337571144104e-01</leafValues></_>
    <_>
      <internalNodes>
        0 -1 120969 -780011994 1620755182 1166512157 1100255577
        1528649740 797177254 1908495587 -1180974780</internalNodes>
      <leafValues>
        -3.8729405403137207e-01 2.3360112309455872e-01</leafValues></_>
    <_>
      <internalNodes>
        0 -1 6850 -1602647059 669675509 -1481528329 -1073959476
        -58777633 -2272616 1803366917 -1172194334</internalNodes>
      <leafValues>
        -2.4898348748683929e-01 3.7302619218826294e-01</leafValues></_>
    <_>
      <internalNodes>
        0 -1 69607 -81513641 -1297662574 422384665 1472319564 1359608703
        1318425768 318830044 1430229134</internalNodes>
      <leafValues>
        -3.0510252714157104e-01 3.1211081147193909e-01</leafValues></_>
    <_>
      <internalNodes>
        0 -1 77990 -1895698253 -2097031904 1071407803 1471534093
        -1507401034 -156406283 398299603 -983640788</internalNodes>
      <leafValues>
        -2.8145250678062439e-01 3.3112409710884094e-01</leafValues></_>
    <_>
      <internalNodes>
        0 -1 68914 -1067122914 2084955096 547896234 -1994029507
        1528021970 860046417 -39567088 -1382395319</internalNodes>
      <leafValues>
        -3.2627674937248230e-01 2.9933795332908630e-01</leafValues></_>
    <_>
      <internalNodes>
        0 -1 121428 -997341888 -665202682 176345141 -259997552
        -1725650002 -1327340090 -1870419009 429775054</internalNodes>
      <leafValues>
        -3.2292532920837402e-01 3.0144822597503662e-01</leafValues></_>
    <_>
      <internalNodes>
        0 -1 110304 -1617323324 -1089447420 -719295727 520562576
        -1643347810 750449808 285733887 -1960866679</internalNodes>
      <leafValues>
        -2.5214439630508423e-01 3.9729997515678406e-01</leafValues></_>
    <_>
      <internalNodes>
        0 -1 115795 -518336297 669768533 -222835717 2098384043
        -1733049137 -1560547587 -1030638901 -1744649073</internalNodes>
      <leafValues>
        -2.8284206986427307e-01 3.5586655139923096e-01</leafValues></_>
    <_>
      <internalNodes>
        0 -1 162291 1595011923 -1356627145 889121748 -5900015 925850955
        -302006342 1171289364 -1106773387</internalNodes>
      <leafValues>
        -2.5342679023742676e-01 4.0501174330711365e-01</leafValues></_>
    <_>
      <internalNodes>
        0 -1 19749 -2113672960 268442497 -490397474 1898070156 76418299
        -338293623 1760061385 1057694360</internalNodes>
      <leafValues>
        -3.2189491391181946e-01 3.3475092053413391e-01</leafValues></_>
    <_>
      <internalNodes>
        0 -1 83043 -1106726494 -461166522 1411506293 -124657363
        -1269069319 -934796888 933424767 1372554264</internalNodes>
      <leafValues>
        -3.9492753148078918e-01 2.7498880028724670e-01</leafValues></_>
    <_>
      <internalNodes>
        0 -1 153272 -2108962091 1154439206 1615929539 125800795
        -1999680492 446304440 1226331693 243301318</internalNodes>
      <leafValues>
        -3.5167711973190308e-01 2.9817995429039001e-01</leafValues></_>
    <_>
      <internalNodes>
        0 -1 93309 1229402795 1565280464 -1735762973 -1924119479
        390001574 2118327 1633243403 -1196738501</internalNodes>
      <leafValues>
        -3.4368824958801270e-01 3.1127601861953735e-01</leafValues></_>
    <_>
      <internalNodes>
        0 -1 136830 1525242063 1564421263 1927741142 862936639 -84956597
        1749212622 -933511425 -200294689</internalNodes>
      <leafValues>
        -2.8852656483650208e-01 3.8149672746658325e-01</leafValues></_>
    <_>
      <internalNodes>
        0 -1 73723 738974794 -746298284 478501139 986114321 1174553024
        1892747152 19062474 1297797943</internalNodes>
      <leafValues>
        -4.4962200522422791e-01 2.5881570577621460e-01</leafValues></_>
    <_>
      <internalNodes>
        0 -1 101244 1361694397 1712014272 325781331 -245028407
        -146098437 -1128092004 -511995473 526856447</internalNodes>
      <leafValues>
        -2.8176251053810120e-01 4.0388625860214233e-01</leafValues></_>
    <_>
      <internalNodes>
        0 -1 98426 -1115082849 1527745488 -874842549 1413606699
        397653463 -703564590 167039378 -1162099225</internalNodes>
      <leafValues>
        -2.2280515730381012e-01 5.2117621898651123e-01</leafValues></_>
    <_>
      <internalNodes>
        0 -1 124010 2080098527 -637809635 -191892468 -782852617
        -254504056 -1296523306 1852347290 -83184773</internalNodes>
      <leafValues>
        -1.8895986676216125e-01 5.3137320280075073e-01</leafValues></_>
    <_>
      <internalNodes>
        0 -1 125001 -688921858 -1017867245 658532751 1393544431
        -941372404 1443416353 -1070418533 -192684673</internalNodes>
      <leafValues>
        -2.6804533600807190e-01 4.1247817873954773e-01</leafValues></_>
    <_>
      <internalNodes>
        0 -1 121955 -237137308 -85397775 1828376271 -2034950931
        -1720086729 2098728481 816158127 -1242875173</internalNodes>
      <leafValues>
        -2.7037557959556580e-01 4.1900661587715149e-01</leafValues></_></weakClassifiers></stage23>
</opencv_storage>
