<?xml version="1.0"?>
<opencv_storage>
<stage20>
  <maxWeakCount>19</maxWeakCount>
  <stageThreshold>-1.0800951719284058e+00</stageThreshold>
  <weakClassifiers>
    <_>
      <internalNodes>
        0 -1 136772 -621805416 1223295660 -956512853 318920284
        -964778716 1463725583 -497090666 1999273567</internalNodes>
      <leafValues>
        -1.2954333424568176e-01 5.4469060897827148e-01</leafValues></_>
    <_>
      <internalNodes>
        0 -1 101476 -1325357406 -243153278 -1862086656 -581999835
        848417939 -918387517 90453 1433913713</internalNodes>
      <leafValues>
        -4.0394115447998047e-01 2.6566782593727112e-01</leafValues></_>
    <_>
      <internalNodes>
        0 -1 2220 -1031873585 1042835528 401449668 1549851664 35607951
        2096555502 2050977163 -273715377</internalNodes>
      <leafValues>
        -2.3407046496868134e-01 4.0444144606590271e-01</leafValues></_>
    <_>
      <internalNodes>
        0 -1 17671 -1985309742 -881651264 4798 -646392834 -1940631084
        -548952880 1225179287 -739239225</internalNodes>
      <leafValues>
        -3.4161683917045593e-01 2.8138601779937744e-01</leafValues></_>
    <_>
      <internalNodes>
        0 -1 114096 -428889598 -665381613 -804272260 428585750
        1668190722 596050442 1435336783 1853094618</internalNodes>
      <leafValues>
        -3.9265203475952148e-01 2.3067498207092285e-01</leafValues></_>
    <_>
      <internalNodes>
        0 -1 109229 -149322363 -1337072574 236976005 -1580538430
        -675175293 191176926 1972867407 -187898376</internalNodes>
      <leafValues>
        -2.6569968461990356e-01 3.7417793273925781e-01</leafValues></_>
    <_>
      <internalNodes>
        0 -1 83832 -1156009056 -2014582304 -1727064601 -456273648
        992799437 -2052857782 587945203 1337946195</internalNodes>
      <leafValues>
        -4.2855241894721985e-01 2.3606136441230774e-01</leafValues></_>
    <_>
      <internalNodes>
        0 -1 120307 -1733290853 -251918983 -1448389665 425083903
        -1129013877 -1492066404 1148684191 -82148939</internalNodes>
      <leafValues>
        -2.8300964832305908e-01 3.8248661160469055e-01</leafValues></_>
    <_>
      <internalNodes>
        0 -1 64725 -73567337 -654762963 101247228 1573998887 -302310238
        155888322 -987983393 -80008305</internalNodes>
      <leafValues>
        -2.0650768280029297e-01 4.8677176237106323e-01</leafValues></_>
    <_>
      <internalNodes>
        0 -1 138331 -2118938565 993135663 -1418789292 1911708308
        -1003090363 -1367966004 -571003055 -588608942</internalNodes>
      <leafValues>
        -2.9372516274452209e-01 3.6478662490844727e-01</leafValues></_>
    <_>
      <internalNodes>
        0 -1 83254 -462033744 798040807 1412471957 -740829881
        -1518424388 268609018 -715899021 -581029925</internalNodes>
      <leafValues>
        -3.0390247702598572e-01 3.5817125439643860e-01</leafValues></_>
    <_>
      <internalNodes>
        0 -1 131184 -725577022 -767473529 419924 810026375 8933904
        1086923122 1644741302 1930068634</internalNodes>
      <leafValues>
        -4.3853875994682312e-01 2.3578411340713501e-01</leafValues></_>
    <_>
      <internalNodes>
        0 -1 28713 -279660579 -413013723 -437292461 -43419900
        -2045266793 -169880461 457152073 -587546271</internalNodes>
      <leafValues>
        -2.3112604022026062e-01 4.6488133072853088e-01</leafValues></_>
    <_>
      <internalNodes>
        0 -1 70508 967114751 -135928184 -1359045929 1359997289 203591356
        -1998624704 -966263365 -1881581156</internalNodes>
      <leafValues>
        -1.9220286607742310e-01 5.6642544269561768e-01</leafValues></_>
    <_>
      <internalNodes>
        0 -1 110752 -485577296 286282136 253477928 958106740 -1304794757
        -1200928376 672340160 220942364</internalNodes>
      <leafValues>
        -4.0364325046539307e-01 2.7718749642372131e-01</leafValues></_>
    <_>
      <internalNodes>
        0 -1 93922 -610030993 1515390057 -505188037 526211769
        -1810054485 -1833733966 873784317 -1951425063</internalNodes>
      <leafValues>
        -2.3041532933712006e-01 4.9057260155677795e-01</leafValues></_>
    <_>
      <internalNodes>
        0 -1 76068 -1321798998 326948147 662065551 2097159995 766272274
        787633486 1197624505 1066085720</internalNodes>
      <leafValues>
        -2.8816923499107361e-01 3.7882038950920105e-01</leafValues></_>
    <_>
      <internalNodes>
        0 -1 67501 -670068319 -1132281599 847303524 -1734258661
        541588713 -1873231797 26185317 235928325</internalNodes>
      <leafValues>
        -4.3377673625946045e-01 2.5064870715141296e-01</leafValues></_>
    <_>
      <internalNodes>
        0 -1 32502 -1818496403 300791695 -335899850 593179469 -787566418
        718272117 -1779587954 797878351</internalNodes>
      <leafValues>
        -2.8757315874099731e-01 4.0025159716606140e-01</leafValues></_></weakClassifiers></stage20>
</opencv_storage>
