<?xml version="1.0"?>
<opencv_storage>
<stage19>
  <maxWeakCount>19</maxWeakCount>
  <stageThreshold>-7.2924870252609253e-01</stageThreshold>
  <weakClassifiers>
    <_>
      <internalNodes>
        0 -1 130975 -927283072 -251999197 1223298570 1102708716
        -562548946 2066459438 -833699953 -269946013</internalNodes>
      <leafValues>
        -8.5020244121551514e-02 5.5909693241119385e-01</leafValues></_>
    <_>
      <internalNodes>
        0 -1 28391 -222436877 578937826 1495353088 -2081037543 179958766
        183653247 54588243 1137017800</internalNodes>
      <leafValues>
        -3.0174666643142700e-01 3.2202699780464172e-01</leafValues></_>
    <_>
      <internalNodes>
        0 -1 119754 2130860495 -112504405 -804552265 1120415873
        1744978291 813748913 -1567499813 -825339555</internalNodes>
      <leafValues>
        -3.2202461361885071e-01 2.9478043317794800e-01</leafValues></_>
    <_>
      <internalNodes>
        0 -1 121513 -372511924 1541773602 -1999623678 1181024804
        -640996645 824779332 -1509717015 2029910702</internalNodes>
      <leafValues>
        -3.1288370490074158e-01 3.1093862652778625e-01</leafValues></_>
    <_>
      <internalNodes>
        0 -1 110047 -822102234 -1297751574 1853680645 -29894890
        613867520 1427108823 5357966 -831859925</internalNodes>
      <leafValues>
        -2.9630354046821594e-01 3.1186974048614502e-01</leafValues></_>
    <_>
      <internalNodes>
        0 -1 103291 -1568421067 1158953849 637499001 499578277 134034405
        -604082193 116728589 -1679134619</internalNodes>
      <leafValues>
        -2.8274318575859070e-01 3.5025513172149658e-01</leafValues></_>
    <_>
      <internalNodes>
        0 -1 129310 2074660986 1602560902 9601048 -74967291 738756970
        573280389 1090529370 1541363649</internalNodes>
      <leafValues>
        -3.5373845696449280e-01 2.8268897533416748e-01</leafValues></_>
    <_>
      <internalNodes>
        0 -1 104478 70440496 -1322066591 1509355763 1060143317
        -1359606545 -104720481 247946641 -1888820439</internalNodes>
      <leafValues>
        -2.9108867049217224e-01 3.4352174401283264e-01</leafValues></_>
    <_>
      <internalNodes>
        0 -1 84611 38875282 1357995193 161809604 -665647605 1246951871
        1481248770 1446073757 521798667</internalNodes>
      <leafValues>
        -3.9459770917892456e-01 2.6731562614440918e-01</leafValues></_>
    <_>
      <internalNodes>
        0 -1 3912 -835902977 987512559 -119570717 -1467029200 1324337675
        -1494331650 1804452071 -1079272234</internalNodes>
      <leafValues>
        -2.4876385927200317e-01 4.4099694490432739e-01</leafValues></_>
    <_>
      <internalNodes>
        0 -1 156829 -749268743 -39373444 -1766513427 -240424041
        -743040166 -317269869 2083380874 1429522142</internalNodes>
      <leafValues>
        -2.9976680874824524e-01 3.5183569788932800e-01</leafValues></_>
    <_>
      <internalNodes>
        0 -1 113298 1400082655 -47987529 1348800893 -718416797
        1752733259 -616096056 -1727882373 -819229073</internalNodes>
      <leafValues>
        -2.2080646455287933e-01 5.1535892486572266e-01</leafValues></_>
    <_>
      <internalNodes>
        0 -1 84403 -592931024 -1044131590 1405470592 -1624276668
        303728570 15827464 27391105 139399576</internalNodes>
      <leafValues>
        -4.4872245192527771e-01 2.4641489982604980e-01</leafValues></_>
    <_>
      <internalNodes>
        0 -1 63364 -1238978344 -23363183 1225002441 -717142476
        -359945589 1885778534 -1291843386 1639514274</internalNodes>
      <leafValues>
        -4.2200821638107300e-01 2.5797042250633240e-01</leafValues></_>
    <_>
      <internalNodes>
        0 -1 139464 -178646898 1440157995 1639979919 1890610655
        -913652986 -786347703 2034824322 -181771634</internalNodes>
      <leafValues>
        -3.5374739766120911e-01 3.2130640745162964e-01</leafValues></_>
    <_>
      <internalNodes>
        0 -1 88957 1000705949 440078884 -10263045 822441463 -554516322
        -1165842616 728873206 -754841608</internalNodes>
      <leafValues>
        -2.5597357749938965e-01 4.2236638069152832e-01</leafValues></_>
    <_>
      <internalNodes>
        0 -1 91631 -1101337337 2075026265 -981504882 1258944801
        1483878579 2083285947 276910818 2075535570</internalNodes>
      <leafValues>
        -3.1560432910919189e-01 3.6294990777969360e-01</leafValues></_>
    <_>
      <internalNodes>
        0 -1 80137 -618562960 877199544 -2081963747 270528314
        -1437904468 -1338277690 123425839 -540041761</internalNodes>
      <leafValues>
        -2.5255292654037476e-01 4.4622492790222168e-01</leafValues></_>
    <_>
      <internalNodes>
        0 -1 72826 -964144951 -1342142068 339788084 1804712503
        -1027805083 1096305153 -1475403695 128838269</internalNodes>
      <leafValues>
        -3.8247695565223694e-01 3.0352663993835449e-01</leafValues></_></weakClassifiers></stage19>
</opencv_storage>
