<?xml version="1.0"?>
<opencv_storage>
<stage15>
  <maxWeakCount>19</maxWeakCount>
  <stageThreshold>-7.1697521209716797e-01</stageThreshold>
  <weakClassifiers>
    <_>
      <internalNodes>
        0 -1 88245 -1683768406 -880637822 -562040620 -75512811
        -1624079391 1166788587 36041841 1442792582</internalNodes>
      <leafValues>
        -5.5788006633520126e-02 5.8328658342361450e-01</leafValues></_>
    <_>
      <internalNodes>
        0 -1 113684 -603988193 40015261 -1474244927 1217131909
        -1182666927 135939170 -2111789334 1810818935</internalNodes>
      <leafValues>
        -3.5735788941383362e-01 3.0952572822570801e-01</leafValues></_>
    <_>
      <internalNodes>
        0 -1 136900 -753580310 -594197718 -633088790 307704940
        -885609978 -165422511 945990315 -209977378</internalNodes>
      <leafValues>
        -3.4638682007789612e-01 3.0499702692031860e-01</leafValues></_>
    <_>
      <internalNodes>
        0 -1 146763 -75546553 276722454 1760479786 1630488391 -90763506
        -42512533 -1964596736 -79830181</internalNodes>
      <leafValues>
        -2.9840517044067383e-01 3.3905348181724548e-01</leafValues></_>
    <_>
      <internalNodes>
        0 -1 114322 -84161814 1883053228 1625434282 291036445 -687684625
        -1744366047 -1858893829 -611613233</internalNodes>
      <leafValues>
        -2.8976455330848694e-01 3.5399219393730164e-01</leafValues></_>
    <_>
      <internalNodes>
        0 -1 149341 2052128777 1390362653 1124364745 575165681
        -517533302 -1177857403 1026480508 172552970</internalNodes>
      <leafValues>
        -4.3377038836479187e-01 2.4246129393577576e-01</leafValues></_>
    <_>
      <internalNodes>
        0 -1 19701 -1954505309 1068232128 799800699 -1649519257
        262888895 -276988763 63284665 -953362180</internalNodes>
      <leafValues>
        -3.0842563509941101e-01 3.6059314012527466e-01</leafValues></_>
    <_>
      <internalNodes>
        0 -1 118106 -145821752 -229850495 739039616 313856204
        -1000042496 1091045710 17909317 1985940239</internalNodes>
      <leafValues>
        -4.5847499370574951e-01 2.4604253470897675e-01</leafValues></_>
    <_>
      <internalNodes>
        0 -1 34375 -1992586584 1062447363 255869116 826441953 151520172
        1381728443 26289656 1140861738</internalNodes>
      <leafValues>
        -5.8522582054138184e-01 1.8421573936939240e-01</leafValues></_>
    <_>
      <internalNodes>
        0 -1 94260 721452713 1493300544 1272009032 963860092 -2104413198
        -1457968731 647115230 136797192</internalNodes>
      <leafValues>
        -3.7160316109657288e-01 3.0072420835494995e-01</leafValues></_>
    <_>
      <internalNodes>
        0 -1 117685 -1829116621 -719929203 -83951845 2007496381
        -2129943671 -821753403 -548670004 -1407726152</internalNodes>
      <leafValues>
        -2.3960247635841370e-01 4.8479655385017395e-01</leafValues></_>
    <_>
      <internalNodes>
        0 -1 78816 -1291654981 -2146783775 1536264309 -304475896
        420330491 1378287752 868450389 933970154</internalNodes>
      <leafValues>
        -3.6659219861030579e-01 3.1305393576622009e-01</leafValues></_>
    <_>
      <internalNodes>
        0 -1 127392 -231624295 -1397174667 243581086 207381844
        1371631883 966840513 -707423861 -415303600</internalNodes>
      <leafValues>
        -3.5175761580467224e-01 3.2909023761749268e-01</leafValues></_>
    <_>
      <internalNodes>
        0 -1 106501 -483855800 289508000 151063192 872731918 1208778882
        973164676 -2096714658 404260029</internalNodes>
      <leafValues>
        -5.3113001585006714e-01 2.3255068063735962e-01</leafValues></_>
    <_>
      <internalNodes>
        0 -1 124801 -93802494 1196623115 -671076637 26334495 -230444650
        -1584906216 1929494666 21742766</internalNodes>
      <leafValues>
        -4.3753132224082947e-01 2.7023878693580627e-01</leafValues></_>
    <_>
      <internalNodes>
        0 -1 94133 181589018 351620160 1537843167 1528534277 -1364588822
        957678723 -1761255717 -817167783</internalNodes>
      <leafValues>
        -3.0925264954566956e-01 4.0942537784576416e-01</leafValues></_>
    <_>
      <internalNodes>
        0 -1 96990 -83658022 -548699294 -1322260483 -676733852
        -1694269014 -554834025 449050350 -1956672418</internalNodes>
      <leafValues>
        -2.6249247789382935e-01 4.5492216944694519e-01</leafValues></_>
    <_>
      <internalNodes>
        0 -1 158482 -907710151 1095970131 420160349 627741823 1234133785
        -1200489942 405340627 1216387372</internalNodes>
      <leafValues>
        -3.9159220457077026e-01 3.1300082802772522e-01</leafValues></_>
    <_>
      <internalNodes>
        0 -1 120950 1928987310 940565526 -1165847186 2100199764
        1374404846 550142035 -68411354 -46575526</internalNodes>
      <leafValues>
        -4.1581946611404419e-01 2.9848834872245789e-01</leafValues></_></weakClassifiers></stage15>
</opencv_storage>
