<?xml version="1.0"?>
<opencv_storage>
<stage5>
  <maxWeakCount>15</maxWeakCount>
  <stageThreshold>-1.2287074327468872e+00</stageThreshold>
  <weakClassifiers>
    <_>
      <internalNodes>
        0 -1 106164 -75528530 269091366 255798010 289797103 1090814370
        266496 332878571 529530815</internalNodes>
      <leafValues>
        -2.7486437559127808e-01 5.9167951345443726e-01</leafValues></_>
    <_>
      <internalNodes>
        0 -1 136761 -128759666 -589886449 276877934 1393513231
        -1437827070 1979824143 -2013004405 2068577183</internalNodes>
      <leafValues>
        -4.1951623558998108e-01 3.9751952886581421e-01</leafValues></_>
    <_>
      <internalNodes>
        0 -1 63026 -604508232 -739120516 2097542933 -628294682 461963776
        -1022734078 1501889496 -2360321</internalNodes>
      <leafValues>
        -4.4472932815551758e-01 3.6548775434494019e-01</leafValues></_>
    <_>
      <internalNodes>
        0 -1 112003 -654262073 -638283563 -776064681 -973496211
        -798453557 -3575573 1343918785 -1058062229</internalNodes>
      <leafValues>
        -3.6163231730461121e-01 4.1333350539207458e-01</leafValues></_>
    <_>
      <internalNodes>
        0 -1 92939 -704653092 403705864 1703238865 487708077 -1039233574
        -2012548416 -2096820820 1059818925</internalNodes>
      <leafValues>
        -4.5156118273735046e-01 3.3858427405357361e-01</leafValues></_>
    <_>
      <internalNodes>
        0 -1 117925 -763633458 1343184966 436879688 1359603991
        -1065096536 310444257 -1050509126 143343807</internalNodes>
      <leafValues>
        -5.1229870319366455e-01 2.7920785546302795e-01</leafValues></_>
    <_>
      <internalNodes>
        0 -1 114015 -202644958 -231236606 -731946521 1518021339
        -1030782966 1124242458 273536410 -78919725</internalNodes>
      <leafValues>
        -3.2524937391281128e-01 4.5686110854148865e-01</leafValues></_>
    <_>
      <internalNodes>
        0 -1 142250 -748854881 2060281699 326037230 1615460085
        -949066101 -1835763857 -159648017 -1156852242</internalNodes>
      <leafValues>
        -3.3169099688529968e-01 4.6709293127059937e-01</leafValues></_>
    <_>
      <internalNodes>
        0 -1 101379 1426113952 298049185 -519617503 -216612047
        1476583586 1503240578 929303579 594539290</internalNodes>
      <leafValues>
        -5.7116430997848511e-01 2.9689133167266846e-01</leafValues></_>
    <_>
      <internalNodes>
        0 -1 55265 -249629255 1976945550 619059105 2011292473 1075028399
        -10682385 -2128506225 -139470965</internalNodes>
      <leafValues>
        -2.8645029664039612e-01 5.6856691837310791e-01</leafValues></_>
    <_>
      <internalNodes>
        0 -1 88813 1744684962 1371770132 -257911612 324080392 1245610906
        1376845830 285426461 -1350688849</internalNodes>
      <leafValues>
        -4.4065478444099426e-01 3.5617619752883911e-01</leafValues></_>
    <_>
      <internalNodes>
        0 -1 131297 -1496908182 -226442600 -1734294440 294650944
        553921312 814401672 185371272 313199221</internalNodes>
      <leafValues>
        -6.0534119606018066e-01 2.4215948581695557e-01</leafValues></_>
    <_>
      <internalNodes>
        0 -1 120840 -654585664 -173160242 1084802765 1229839821
        -1696603006 2103403727 -1495087409 -114379433</internalNodes>
      <leafValues>
        -3.7770107388496399e-01 4.3782514333724976e-01</leafValues></_>
    <_>
      <internalNodes>
        0 -1 88475 -1825064022 -282932600 -232398736 -537442501
        -1745428037 -1775779997 353396115 -740297313</internalNodes>
      <leafValues>
        -3.4970986843109131e-01 4.6218651533126831e-01</leafValues></_>
    <_>
      <internalNodes>
        0 -1 60790 -1873313736 356508571 -1283771325 -177057753
        -1267981651 -37848883 615849998 -414392817</internalNodes>
      <leafValues>
        -3.6496940255165100e-01 4.4083938002586365e-01</leafValues></_></weakClassifiers></stage5>
</opencv_storage>
