<?xml version="1.0"?>
<opencv_storage>
<stage7>
  <maxWeakCount>15</maxWeakCount>
  <stageThreshold>-7.6735675334930420e-01</stageThreshold>
  <weakClassifiers>
    <_>
      <internalNodes>
        0 -1 83507 -1448939342 2104717907 18956383 297792989 2112883162
        536483739 822858682 1433518079</internalNodes>
      <leafValues>
        -3.1250000000000000e-01 5.6237721443176270e-01</leafValues></_>
    <_>
      <internalNodes>
        0 -1 136760 -685813558 -618963961 -1064651191 1933791423
        -80750584 1930387271 -1317281841 -150209797</internalNodes>
      <leafValues>
        -3.0362385511398315e-01 4.7007492184638977e-01</leafValues></_>
    <_>
      <internalNodes>
        0 -1 97779 -69209312 -1065138738 1360577844 -169617240 387703212
        -1832711573 319673305 -607131213</internalNodes>
      <leafValues>
        -3.6782649159431458e-01 3.5288986563682556e-01</leafValues></_>
    <_>
      <internalNodes>
        0 -1 57306 -242886718 -1223524348 -2146281197 2001974533
        -611367772 29854286 1142668111 1695009291</internalNodes>
      <leafValues>
        -4.7886180877685547e-01 2.7828177809715271e-01</leafValues></_>
    <_>
      <internalNodes>
        0 -1 101366 990105072 1074512010 -786369847 1574294657
        -2121692245 -1954446672 50975195 1607421177</internalNodes>
      <leafValues>
        -3.5881930589675903e-01 3.7258902192115784e-01</leafValues></_>
    <_>
      <internalNodes>
        0 -1 85291 -1696048432 -1626652606 -1156329391 453470129 2677386
        -1692198654 287868927 454757437</internalNodes>
      <leafValues>
        -3.5999271273612976e-01 3.6044800281524658e-01</leafValues></_>
    <_>
      <internalNodes>
        0 -1 124728 -762257364 -562020258 1615900700 -49803252
        -551515478 -1291550012 478316969 1763699914</internalNodes>
      <leafValues>
        -3.8808169960975647e-01 3.5254392027854919e-01</leafValues></_>
    <_>
      <internalNodes>
        0 -1 139758 -857210692 1422918093 416426158 1343115929
        1241513992 1415139353 -323910502 1395653451</internalNodes>
      <leafValues>
        -5.2337819337844849e-01 2.5968769192695618e-01</leafValues></_>
    <_>
      <internalNodes>
        0 -1 118867 -1008668160 2098320223 -1996472310 -683306857
        1218995598 -433417973 1249939658 1943797519</internalNodes>
      <leafValues>
        -3.8198783993721008e-01 3.7169632315635681e-01</leafValues></_>
    <_>
      <internalNodes>
        0 -1 4002 -1928361246 -914105857 -1456127711 1767101853
        1225984192 -552723887 2073928229 -815173602</internalNodes>
      <leafValues>
        -4.3371811509132385e-01 3.3129644393920898e-01</leafValues></_>
    <_>
      <internalNodes>
        0 -1 131115 -258230062 -721353600 -398405552 1478607398
        176439786 1174979072 -1878621807 1225361770</internalNodes>
      <leafValues>
        -3.7190291285514832e-01 3.7179353833198547e-01</leafValues></_>
    <_>
      <internalNodes>
        0 -1 127368 575783130 -776863670 1074806991 1343295927 683855374
        2082054152 -931808789 -1945970117</internalNodes>
      <leafValues>
        -3.9277121424674988e-01 3.6969986557960510e-01</leafValues></_>
    <_>
      <internalNodes>
        0 -1 108729 1580000168 -83783000 1446084980 -1836391742
        -192810077 143270845 199295994 449743030</internalNodes>
      <leafValues>
        -5.5426084995269775e-01 2.5340846180915833e-01</leafValues></_>
    <_>
      <internalNodes>
        0 -1 127921 -801660778 -222950725 -1322723224 -79494469
        -1124483398 -221511064 -1010847238 -682667878</internalNodes>
      <leafValues>
        -2.9209098219871521e-01 5.0715631246566772e-01</leafValues></_>
    <_>
      <internalNodes>
        0 -1 105473 -1447585066 -1871904701 603980823 988520584
        705192844 183747242 691157515 487718479</internalNodes>
      <leafValues>
        -5.3939247131347656e-01 2.8862950205802917e-01</leafValues></_></weakClassifiers></stage7>
</opencv_storage>
