<?xml version="1.0"?>
<opencv_storage>
<stage1>
  <maxWeakCount>7</maxWeakCount>
  <stageThreshold>-1.4902405738830566e+00</stageThreshold>
  <weakClassifiers>
    <_>
      <internalNodes>
        0 -1 93113 -742919173 1367016383 41878139 895202303 1440736683
        1968662303 838334431 1946153983</internalNodes>
      <leafValues>
        -4.1993570327758789e-01 7.7010160684585571e-01</leafValues></_>
    <_>
      <internalNodes>
        0 -1 131054 -655440760 -800248950 1254099464 1096023807
        -277174774 2114619915 -1976647729 -414449713</internalNodes>
      <leafValues>
        -4.7471168637275696e-01 5.8257335424423218e-01</leafValues></_>
    <_>
      <internalNodes>
        0 -1 68362 -10753400 -237788456 68485129 1610453841 -666335606
        806387872 1639164382 2009592523</internalNodes>
      <leafValues>
        -5.9485411643981934e-01 4.4527208805084229e-01</leafValues></_>
    <_>
      <internalNodes>
        0 -1 110059 -620770678 1949303944 -4985036 -1189757069
        1074005416 270600 1557433036 -134220113</internalNodes>
      <leafValues>
        -4.8673462867736816e-01 5.1401394605636597e-01</leafValues></_>
    <_>
      <internalNodes>
        0 -1 121216 -757407026 -804214315 -1570468540 285245727
        -337662070 1536649160 -639650901 -640696913</internalNodes>
      <leafValues>
        -4.7477152943611145e-01 5.0129055976867676e-01</leafValues></_>
    <_>
      <internalNodes>
        0 -1 79086 -942480734 1372439458 1360082209 -238587647
        1477095845 1527449796 1372264927 -7341213</internalNodes>
      <leafValues>
        -5.0598043203353882e-01 4.6505662798881531e-01</leafValues></_>
    <_>
      <internalNodes>
        0 -1 93126 -711871790 1024696516 -2130705263 1895896277
        1158977790 44040602 1124722824 2039595486</internalNodes>
      <leafValues>
        -5.6157457828521729e-01 4.0344175696372986e-01</leafValues></_></weakClassifiers></stage1>
</opencv_storage>
