<?xml version="1.0"?>
<opencv_storage>
<stage11>
  <maxWeakCount>18</maxWeakCount>
  <stageThreshold>-8.0401748418807983e-01</stageThreshold>
  <weakClassifiers>
    <_>
      <internalNodes>
        0 -1 121307 -219089798 1350919304 136355258 16813208 -164642
        -1177632012 1314980286 -1615229441</internalNodes>
      <leafValues>
        -9.7345136106014252e-02 5.8507132530212402e-01</leafValues></_>
    <_>
      <internalNodes>
        0 -1 88375 -1766599766 -806646397 1902593330 -1048825
        -1693817966 -1882258557 29054975 -538970881</internalNodes>
      <leafValues>
        -2.7879568934440613e-01 3.8445773720741272e-01</leafValues></_>
    <_>
      <internalNodes>
        0 -1 133974 -555792147 -615687989 341498574 1526947551
        -1024161778 -264253937 -1974954289 -83629061</internalNodes>
      <leafValues>
        -2.9027360677719116e-01 3.6929842829704285e-01</leafValues></_>
    <_>
      <internalNodes>
        0 -1 27286 -536087902 1394676225 303075922 1998015237
        -1020702588 -1423236213 1918611596 1200352335</internalNodes>
      <leafValues>
        -3.9567756652832031e-01 2.7982807159423828e-01</leafValues></_>
    <_>
      <internalNodes>
        0 -1 127992 -721755920 -262076734 1245710008 2063675005
        -1705801302 -1824246655 -657161846 -74750006</internalNodes>
      <leafValues>
        -2.8489989042282104e-01 4.4339537620544434e-01</leafValues></_>
    <_>
      <internalNodes>
        0 -1 117837 -489690624 -800603518 -2147449839 891226178 42108584
        852362 1359185095 1157859979</internalNodes>
      <leafValues>
        -5.0978374481201172e-01 2.5453642010688782e-01</leafValues></_>
    <_>
      <internalNodes>
        0 -1 108685 -400305695 -239619853 -508036489 -2124033319
        -658804629 -721741 -400194618 -1196957583</internalNodes>
      <leafValues>
        -3.0308988690376282e-01 3.8556301593780518e-01</leafValues></_>
    <_>
      <internalNodes>
        0 -1 130373 -80492579 2122285309 -890343666 1192155485
        -1304566965 736980855 -402923811 -280706721</internalNodes>
      <leafValues>
        -2.5100144743919373e-01 4.4217804074287415e-01</leafValues></_>
    <_>
      <internalNodes>
        0 -1 94182 -762079055 -1794929584 1572727865 422383257
        -2130536294 -88210260 1545769983 -543453779</internalNodes>
      <leafValues>
        -2.2359506785869598e-01 5.4086178541183472e-01</leafValues></_>
    <_>
      <internalNodes>
        0 -1 121428 -866671478 -197118771 -694759151 -1878507515
        -1610493528 -1651374962 -1561819185 394412695</internalNodes>
      <leafValues>
        -3.5884365439414978e-01 3.3682194352149963e-01</leafValues></_>
    <_>
      <internalNodes>
        0 -1 23166 -1365113106 -310279709 -849772032 -485371407
        755541058 1533018950 1816662607 1328237145</internalNodes>
      <leafValues>
        -5.5558258295059204e-01 2.1590612828731537e-01</leafValues></_>
    <_>
      <internalNodes>
        0 -1 158454 -148111541 -1549363915 700082819 -1688782583
        -145947632 -1646297129 -872913900 -281875125</internalNodes>
      <leafValues>
        -2.8610894083976746e-01 4.5028668642044067e-01</leafValues></_>
    <_>
      <internalNodes>
        0 -1 35734 -809332534 -1686017895 -1943486400 -170114921
        -553321228 54739349 -1073083505 1486020609</internalNodes>
      <leafValues>
        -4.9756634235382080e-01 2.5026136636734009e-01</leafValues></_>
    <_>
      <internalNodes>
        0 -1 23627 462568126 -174780224 141040601 957417460 -628972128
        1942159552 -1358667529 750688829</internalNodes>
      <leafValues>
        -4.0791442990303040e-01 3.0409836769104004e-01</leafValues></_>
    <_>
      <internalNodes>
        0 -1 113860 -636296280 -1065189164 -939403259 1136103491
        839877040 103042 -536091809 51982043</internalNodes>
      <leafValues>
        -6.2719225883483887e-01 2.0577737689018250e-01</leafValues></_>
    <_>
      <internalNodes>
        0 -1 116743 -1641872368 -174763639 1396969711 1494291805
        -2071363448 -1464168305 193058955 1229590745</internalNodes>
      <leafValues>
        -4.5263147354125977e-01 2.9427641630172729e-01</leafValues></_>
    <_>
      <internalNodes>
        0 -1 139024 -71113732 1543192271 451832416 1795418815
        -2014853082 -1085804549 829343340 -70518161</internalNodes>
      <leafValues>
        -3.2081669569015503e-01 4.3783619999885559e-01</leafValues></_>
    <_>
      <internalNodes>
        0 -1 105964 -408489568 -924725280 796845107 1602094965 96460986
        -1617926249 91702781 -1175144677</internalNodes>
      <leafValues>
        -3.2754111289978027e-01 4.0642979741096497e-01</leafValues></_></weakClassifiers></stage11>
</opencv_storage>
