<?xml version="1.0"?>
<opencv_storage>
<stage4>
  <maxWeakCount>10</maxWeakCount>
  <stageThreshold>-6.8450856208801270e-01</stageThreshold>
  <weakClassifiers>
    <_>
      <internalNodes>
        0 -1 105581 -34081845 550939363 854521343 1671643999 -1219562554
        192378879 844357599 935819102</internalNodes>
      <leafValues>
        -2.2392414510250092e-01 6.3571232557296753e-01</leafValues></_>
    <_>
      <internalNodes>
        0 -1 97341 -1820069214 -839941632 -1083223712 -696953837
        -1952406901 -878215033 1537211 -739261441</internalNodes>
      <leafValues>
        -3.1299221515655518e-01 5.2716946601867676e-01</leafValues></_>
    <_>
      <internalNodes>
        0 -1 139627 -645958921 1393953109 590566395 52123599 -319840246
        1392928582 1933548031 1880882175</internalNodes>
      <leafValues>
        -3.6772298812866211e-01 4.4017314910888672e-01</leafValues></_>
    <_>
      <internalNodes>
        0 -1 77605 -15031597 -237809584 355275743 1472352290 1621207211
        -1567449072 -1446671377 871342745</internalNodes>
      <leafValues>
        -4.4525998830795288e-01 3.7388667464256287e-01</leafValues></_>
    <_>
      <internalNodes>
        0 -1 114027 -40110390 -180286382 269398171 274057552 1346417320
        134217732 1715776650 -807683377</internalNodes>
      <leafValues>
        -4.2147871851921082e-01 3.9998549222946167e-01</leafValues></_>
    <_>
      <internalNodes>
        0 -1 130709 -165689138 -115356579 -1733329709 1359545851
        -370214834 -191967737 -838076705 -248531289</internalNodes>
      <leafValues>
        -3.0295419692993164e-01 5.1565372943878174e-01</leafValues></_>
    <_>
      <internalNodes>
        0 -1 92436 -6303224 -1726906182 1358991873 453038208 -529280032
        152813718 1741025433 1457176231</internalNodes>
      <leafValues>
        -5.4206061363220215e-01 3.0520796775817871e-01</leafValues></_>
    <_>
      <internalNodes>
        0 -1 93583 -546328158 1497845456 623744753 -585558532 1076276138
        1476465920 1931564474 -120879349</internalNodes>
      <leafValues>
        -3.7475609779357910e-01 4.4298869371414185e-01</leafValues></_>
    <_>
      <internalNodes>
        0 -1 6743 -1844207199 -252690535 -252673038 -1221123704 31654312
        -1279816889 -239939957 -678704499</internalNodes>
      <leafValues>
        -3.5007968544960022e-01 4.8485296964645386e-01</leafValues></_>
    <_>
      <internalNodes>
        0 -1 78947 -1417493376 -889831168 1325286401 -16426741 823238697
        9617548 51434701 1073862991</internalNodes>
      <leafValues>
        -6.1039483547210693e-01 2.8051757812500000e-01</leafValues></_></weakClassifiers></stage4>
</opencv_storage>
