<?xml version="1.0"?>
<opencv_storage>
<stage21>
  <maxWeakCount>21</maxWeakCount>
  <stageThreshold>-8.4331959486007690e-01</stageThreshold>
  <weakClassifiers>
    <_>
      <internalNodes>
        0 -1 134196 1794032716 1244679424 -621215938 2031147244
        2138391068 1964707584 -1623145494 1896384000</internalNodes>
      <leafValues>
        -1.9270239770412445e-01 5.2607327699661255e-01</leafValues></_>
    <_>
      <internalNodes>
        0 -1 101 -2142834769 627639729 1061383593 59736146 1887563001
        2048625538 1256400846 77952032</internalNodes>
      <leafValues>
        -2.8548178076744080e-01 3.2480716705322266e-01</leafValues></_>
    <_>
      <internalNodes>
        0 -1 117676 -593832528 -736917977 762398609 -267417635
        -1842764925 -27998322 310706587 -598486625</internalNodes>
      <leafValues>
        -2.4064771831035614e-01 4.1718286275863647e-01</leafValues></_>
    <_>
      <internalNodes>
        0 -1 78043 -913648438 1361581038 1392595849 1012016875
        -317955882 1454195522 1269500099 1305104448</internalNodes>
      <leafValues>
        -4.3670064210891724e-01 2.2832310199737549e-01</leafValues></_>
    <_>
      <internalNodes>
        0 -1 98326 -12602900 276369801 -39002338 447021373 813896674
        -930932736 117846647 -904178723</internalNodes>
      <leafValues>
        -3.0329346656799316e-01 3.3354109525680542e-01</leafValues></_>
    <_>
      <internalNodes>
        0 -1 99201 -929635351 -2105334957 312137 -654277821 1217184201
        -536508401 -1714740827 10715617</internalNodes>
      <leafValues>
        -3.9493671059608459e-01 2.5440037250518799e-01</leafValues></_>
    <_>
      <internalNodes>
        0 -1 14705 -1344034611 -713624830 1105135513 655628049
        -1362803511 -439933456 31231967 -354054389</internalNodes>
      <leafValues>
        -2.5346526503562927e-01 4.1508382558822632e-01</leafValues></_>
    <_>
      <internalNodes>
        0 -1 23122 868992435 -168941651 -1954823391 352061288 335476231
        1912472927 1463349589 -1007459078</internalNodes>
      <leafValues>
        -2.8493562340736389e-01 3.6668157577514648e-01</leafValues></_>
    <_>
      <internalNodes>
        0 -1 79844 -1961825156 320799788 -2069884834 1129357030
        -921513812 -7202992 304635386 -1894163272</internalNodes>
      <leafValues>
        -3.4264287352561951e-01 3.0261772871017456e-01</leafValues></_>
    <_>
      <internalNodes>
        0 -1 60149 498080464 -1029431024 -1662186127 391931473
        -1457971064 134560136 57672859 440230037</internalNodes>
      <leafValues>
        -3.7127280235290527e-01 2.9123997688293457e-01</leafValues></_>
    <_>
      <internalNodes>
        0 -1 141219 -872202147 -1309717801 -1929680319 -135575489
        -1059197946 -762192011 -659485106 -478741546</internalNodes>
      <leafValues>
        -2.7967125177383423e-01 3.8737174868583679e-01</leafValues></_>
    <_>
      <internalNodes>
        0 -1 105110 -744304590 -579854198 -1761594915 1733759068
        294101123 -380588358 76476201 1259995420</internalNodes>
      <leafValues>
        -3.9764881134033203e-01 2.7536231279373169e-01</leafValues></_>
    <_>
      <internalNodes>
        0 -1 55247 184713315 898695715 -1853864689 -687860208 71988884
        -1347384653 816679276 1879312460</internalNodes>
      <leafValues>
        -4.2815127968788147e-01 2.4641518294811249e-01</leafValues></_>
    <_>
      <internalNodes>
        0 -1 70683 -266280301 1895019728 728549105 303783775 423109470
        -1420761244 54288379 -624177971</internalNodes>
      <leafValues>
        -2.3874445259571075e-01 4.9774360656738281e-01</leafValues></_>
    <_>
      <internalNodes>
        0 -1 140195 604239603 1427079528 832046576 1355022572 -680327360
        420632024 772442267 1367951820</internalNodes>
      <leafValues>
        -3.7875807285308838e-01 2.9031279683113098e-01</leafValues></_>
    <_>
      <internalNodes>
        0 -1 136969 -16888093 -77115409 988335792 1269268075 -1963228540
        -484477115 818138095 -580190210</internalNodes>
      <leafValues>
        -2.6646345853805542e-01 4.1396608948707581e-01</leafValues></_>
    <_>
      <internalNodes>
        0 -1 30164 -1968268866 -586460864 13144863 2039841378 408850627
        -1705312010 1619028139 240266041</internalNodes>
      <leafValues>
        -3.6977842450141907e-01 3.0640748143196106e-01</leafValues></_>
    <_>
      <internalNodes>
        0 -1 128264 -828030272 -146845651 673450353 1346833902
        1597868756 -234404760 422613804 -766519257</internalNodes>
      <leafValues>
        -3.1386083364486694e-01 3.5546082258224487e-01</leafValues></_>
    <_>
      <internalNodes>
        0 -1 114400 -1163272517 442075409 -1995908584 835657149
        -112986661 427333766 48009355 -576991511</internalNodes>
      <leafValues>
        -2.6910793781280518e-01 4.3118411302566528e-01</leafValues></_>
    <_>
      <internalNodes>
        0 -1 73512 975391184 221023370 1231145883 525676545 -1861057868
        1820462790 52928954 456572973</internalNodes>
      <leafValues>
        -4.4439971446990967e-01 2.7350875735282898e-01</leafValues></_>
    <_>
      <internalNodes>
        0 -1 75071 1619863034 -1413414646 437354336 -855308206
        -611800850 3260808 537039008 2133054010</internalNodes>
      <leafValues>
        -3.8915356993675232e-01 3.1395834684371948e-01</leafValues></_></weakClassifiers></stage21>
</opencv_storage>
